digraph Tree {
node [shape=box, style="filled, rounded", color="black", fontname="helvetica"] ;
edge [fontname="helvetica"] ;
0 [label="Glucose <= 140.5\ngini = 0.479\nsamples = 153\nvalue = [92, 61]\nclass = 0", fillcolor="#f6d5bc"] ;
1 [label="Glucose <= 101.5\ngini = 0.383\nsamples = 116\nvalue = [86, 30]\nclass = 0", fillcolor="#eead7e"] ;
0 -> 1 [labeldistance=2.5, labelangle=45, headlabel="True"] ;
2 [label="DiabetesPedigreeFunction <= 0.799\ngini = 0.083\nsamples = 46\nvalue = [44, 2]\nclass = 0", fillcolor="#e68742"] ;
1 -> 2 ;
3 [label="BMI <= 49.8\ngini = 0.043\nsamples = 45\nvalue = [44, 1]\nclass = 0", fillcolor="#e6843d"] ;
2 -> 3 ;
4 [label="gini = 0.0\nsamples = 44\nvalue = [44, 0]\nclass = 0", fillcolor="#e58139"] ;
3 -> 4 ;
5 [label="gini = 0.0\nsamples = 1\nvalue = [0, 1]\nclass = 1", fillcolor="#399de5"] ;
3 -> 5 ;
6 [label="gini = 0.0\nsamples = 1\nvalue = [0, 1]\nclass = 1", fillcolor="#399de5"] ;
2 -> 6 ;
7 [label="BMI <= 26.85\ngini = 0.48\nsamples = 70\nvalue = [42, 28]\nclass = 0", fillcolor="#f6d5bd"] ;
1 -> 7 ;
8 [label="Glucose <= 107.5\ngini = 0.117\nsamples = 16\nvalue = [15, 1]\nclass = 0", fillcolor="#e78946"] ;
7 -> 8 ;
9 [label="Insulin <= 24.0\ngini = 0.5\nsamples = 2\nvalue = [1, 1]\nclass = 0", fillcolor="#ffffff"] ;
8 -> 9 ;
10 [label="gini = 0.0\nsamples = 1\nvalue = [1, 0]\nclass = 0", fillcolor="#e58139"] ;
9 -> 10 ;
11 [label="gini = 0.0\nsamples = 1\nvalue = [0, 1]\nclass = 1", fillcolor="#399de5"] ;
9 -> 11 ;
12 [label="gini = 0.0\nsamples = 14\nvalue = [14, 0]\nclass = 0", fillcolor="#e58139"] ;
8 -> 12 ;
13 [label="BloodPressure <= 84.5\ngini = 0.5\nsamples = 54\nvalue = [27, 27]\nclass = 0", fillcolor="#ffffff"] ;
7 -> 13 ;
14 [label="Age <= 26.5\ngini = 0.491\nsamples = 44\nvalue = [19, 25]\nclass = 1", fillcolor="#cfe7f9"] ;
13 -> 14 ;
15 [label="DiabetesPedigreeFunction <= 0.505\ngini = 0.475\nsamples = 18\nvalue = [11, 7]\nclass = 0", fillcolor="#f6d1b7"] ;
14 -> 15 ;
16 [label="Glucose <= 118.0\ngini = 0.278\nsamples = 12\nvalue = [10, 2]\nclass = 0", fillcolor="#ea9a61"] ;
15 -> 16 ;
17 [label="gini = 0.0\nsamples = 9\nvalue = [9, 0]\nclass = 0", fillcolor="#e58139"] ;
16 -> 17 ;
18 [label="BMI <= 33.95\ngini = 0.444\nsamples = 3\nvalue = [1, 2]\nclass = 1", fillcolor="#9ccef2"] ;
16 -> 18 ;
19 [label="gini = 0.0\nsamples = 2\nvalue = [0, 2]\nclass = 1", fillcolor="#399de5"] ;
18 -> 19 ;
20 [label="gini = 0.0\nsamples = 1\nvalue = [1, 0]\nclass = 0", fillcolor="#e58139"] ;
18 -> 20 ;
21 [label="BMI <= 44.1\ngini = 0.278\nsamples = 6\nvalue = [1, 5]\nclass = 1", fillcolor="#61b1ea"] ;
15 -> 21 ;
22 [label="gini = 0.0\nsamples = 5\nvalue = [0, 5]\nclass = 1", fillcolor="#399de5"] ;
21 -> 22 ;
23 [label="gini = 0.0\nsamples = 1\nvalue = [1, 0]\nclass = 0", fillcolor="#e58139"] ;
21 -> 23 ;
24 [label="DiabetesPedigreeFunction <= 0.262\ngini = 0.426\nsamples = 26\nvalue = [8, 18]\nclass = 1", fillcolor="#91c9f1"] ;
14 -> 24 ;
25 [label="gini = 0.0\nsamples = 8\nvalue = [0, 8]\nclass = 1", fillcolor="#399de5"] ;
24 -> 25 ;
26 [label="BloodPressure <= 51.0\ngini = 0.494\nsamples = 18\nvalue = [8, 10]\nclass = 1", fillcolor="#d7ebfa"] ;
24 -> 26 ;
27 [label="gini = 0.0\nsamples = 4\nvalue = [0, 4]\nclass = 1", fillcolor="#399de5"] ;
26 -> 27 ;
28 [label="Glucose <= 105.5\ngini = 0.49\nsamples = 14\nvalue = [8, 6]\nclass = 0", fillcolor="#f8e0ce"] ;
26 -> 28 ;
29 [label="gini = 0.0\nsamples = 2\nvalue = [0, 2]\nclass = 1", fillcolor="#399de5"] ;
28 -> 29 ;
30 [label="Age <= 36.0\ngini = 0.444\nsamples = 12\nvalue = [8, 4]\nclass = 0", fillcolor="#f2c09c"] ;
28 -> 30 ;
31 [label="Insulin <= 37.5\ngini = 0.444\nsamples = 6\nvalue = [2, 4]\nclass = 1", fillcolor="#9ccef2"] ;
30 -> 31 ;
32 [label="gini = 0.0\nsamples = 3\nvalue = [0, 3]\nclass = 1", fillcolor="#399de5"] ;
31 -> 32 ;
33 [label="Age <= 34.0\ngini = 0.444\nsamples = 3\nvalue = [2, 1]\nclass = 0", fillcolor="#f2c09c"] ;
31 -> 33 ;
34 [label="gini = 0.0\nsamples = 2\nvalue = [2, 0]\nclass = 0", fillcolor="#e58139"] ;
33 -> 34 ;
35 [label="gini = 0.0\nsamples = 1\nvalue = [0, 1]\nclass = 1", fillcolor="#399de5"] ;
33 -> 35 ;
36 [label="gini = 0.0\nsamples = 6\nvalue = [6, 0]\nclass = 0", fillcolor="#e58139"] ;
30 -> 36 ;
37 [label="DiabetesPedigreeFunction <= 0.666\ngini = 0.32\nsamples = 10\nvalue = [8, 2]\nclass = 0", fillcolor="#eca06a"] ;
13 -> 37 ;
38 [label="Pregnancies <= 2.0\ngini = 0.198\nsamples = 9\nvalue = [8, 1]\nclass = 0", fillcolor="#e89152"] ;
37 -> 38 ;
39 [label="Age <= 30.5\ngini = 0.5\nsamples = 2\nvalue = [1, 1]\nclass = 0", fillcolor="#ffffff"] ;
38 -> 39 ;
40 [label="gini = 0.0\nsamples = 1\nvalue = [1, 0]\nclass = 0", fillcolor="#e58139"] ;
39 -> 40 ;
41 [label="gini = 0.0\nsamples = 1\nvalue = [0, 1]\nclass = 1", fillcolor="#399de5"] ;
39 -> 41 ;
42 [label="gini = 0.0\nsamples = 7\nvalue = [7, 0]\nclass = 0", fillcolor="#e58139"] ;
38 -> 42 ;
43 [label="gini = 0.0\nsamples = 1\nvalue = [0, 1]\nclass = 1", fillcolor="#399de5"] ;
37 -> 43 ;
44 [label="Glucose <= 154.5\ngini = 0.272\nsamples = 37\nvalue = [6, 31]\nclass = 1", fillcolor="#5fb0ea"] ;
0 -> 44 [labeldistance=2.5, labelangle=-45, headlabel="False"] ;
45 [label="SkinThickness <= 40.5\ngini = 0.459\nsamples = 14\nvalue = [5, 9]\nclass = 1", fillcolor="#a7d3f3"] ;
44 -> 45 ;
46 [label="Pregnancies <= 12.5\ngini = 0.219\nsamples = 8\nvalue = [1, 7]\nclass = 1", fillcolor="#55abe9"] ;
45 -> 46 ;
47 [label="gini = 0.0\nsamples = 7\nvalue = [0, 7]\nclass = 1", fillcolor="#399de5"] ;
46 -> 47 ;
48 [label="gini = 0.0\nsamples = 1\nvalue = [1, 0]\nclass = 0", fillcolor="#e58139"] ;
46 -> 48 ;
49 [label="Age <= 31.5\ngini = 0.444\nsamples = 6\nvalue = [4, 2]\nclass = 0", fillcolor="#f2c09c"] ;
45 -> 49 ;
50 [label="gini = 0.0\nsamples = 3\nvalue = [3, 0]\nclass = 0", fillcolor="#e58139"] ;
49 -> 50 ;
51 [label="BloodPressure <= 73.0\ngini = 0.444\nsamples = 3\nvalue = [1, 2]\nclass = 1", fillcolor="#9ccef2"] ;
49 -> 51 ;
52 [label="gini = 0.0\nsamples = 1\nvalue = [1, 0]\nclass = 0", fillcolor="#e58139"] ;
51 -> 52 ;
53 [label="gini = 0.0\nsamples = 2\nvalue = [0, 2]\nclass = 1", fillcolor="#399de5"] ;
51 -> 53 ;
54 [label="Glucose <= 190.0\ngini = 0.083\nsamples = 23\nvalue = [1, 22]\nclass = 1", fillcolor="#42a1e6"] ;
44 -> 54 ;
55 [label="gini = 0.0\nsamples = 20\nvalue = [0, 20]\nclass = 1", fillcolor="#399de5"] ;
54 -> 55 ;
56 [label="Pregnancies <= 2.5\ngini = 0.444\nsamples = 3\nvalue = [1, 2]\nclass = 1", fillcolor="#9ccef2"] ;
54 -> 56 ;
57 [label="gini = 0.0\nsamples = 2\nvalue = [0, 2]\nclass = 1", fillcolor="#399de5"] ;
56 -> 57 ;
58 [label="gini = 0.0\nsamples = 1\nvalue = [1, 0]\nclass = 0", fillcolor="#e58139"] ;
56 -> 58 ;
}